<?xml version="1.0"?>
<opencv_storage>
<cascade>
  <stageType>BOOST</stageType>
  <featureType>HAAR</featureType>
  <height>24</height>
  <width>24</width>
  <stageParams>
    <boostType>GAB</boostType>
    <minHitRate>9.9500000476837158e-01</minHitRate>
    <maxFalseAlarm>5.0000000000000000e-01</maxFalseAlarm>
    <weightTrimRate>9.4999998807907104e-01</weightTrimRate>
    <maxDepth>1</maxDepth>
    <maxWeakCount>100</maxWeakCount></stageParams>
  <featureParams>
    <maxCatCount>0</maxCatCount>
    <featSize>1</featSize>
    <mode>BASIC</mode></featureParams>
  <stageNum>6</stageNum>
  <stages>
    <!-- stage 0 -->
    <_>
      <maxWeakCount>2</maxWeakCount>
      <stageThreshold>-3.1974613666534424e-01</stageThreshold>
      <weakClassifiers>
        <_>
          <internalNodes>
            0 -1 0 4.6279948949813843e-01</internalNodes>
          <leafValues>
            -9.9599200487136841e-01 6.6666668653488159e-01</leafValues></_>
        <_>
          <internalNodes>
            0 -1 4 4.2498677968978882e-02</internalNodes>
          <leafValues>
            -9.8641282320022583e-01 9.4522136449813843e-01</leafValues></_></weakClassifiers></_>
    <!-- stage 1 -->
    <_>
      <maxWeakCount>2</maxWeakCount>
      <stageThreshold>-1.4723837375640869e+00</stageThreshold>
      <weakClassifiers>
        <_>
          <internalNodes>
            0 -1 3 5.2305138111114502e-01</internalNodes>
          <leafValues>
            -9.9365752935409546e-01 -5.0000000000000000e-01</leafValues></_>
        <_>
          <internalNodes>
            0 -1 13 -3.4767858684062958e-02</internalNodes>
          <leafValues>
            6.2452226877212524e-02 -9.7238379716873169e-01</leafValues></_></weakClassifiers></_>
    <!-- stage 2 -->
    <_>
      <maxWeakCount>3</maxWeakCount>
      <stageThreshold>-1.9423269033432007e+00</stageThreshold>
      <weakClassifiers>
        <_>
          <internalNodes>
            0 -1 9 3.5773035138845444e-02</internalNodes>
          <leafValues>
            -9.9112099409103394e-01 -7.0247936248779297e-01</leafValues></_>
        <_>
          <internalNodes>
            0 -1 8 -2.5102093815803528e-02</internalNodes>
          <leafValues>
            -1.5780350193381310e-02 -9.5043730735778809e-01</leafValues></_>
        <_>
          <internalNodes>
            0 -1 6 4.1946798563003540e-02</internalNodes>
          <leafValues>
            -9.3542551994323730e-01 3.3056351542472839e-01</leafValues></_></weakClassifiers></_>
    <!-- stage 3 -->
    <_>
      <maxWeakCount>3</maxWeakCount>
      <stageThreshold>-1.7029705047607422e+00</stageThreshold>
      <weakClassifiers>
        <_>
          <internalNodes>
            0 -1 5 -1.7150263488292694e-01</internalNodes>
          <leafValues>
            5.0000000000000000e-01 -9.6267187595367432e-01</leafValues></_>
        <_>
          <internalNodes>
            0 -1 1 1.1452285945415497e-01</internalNodes>
          <leafValues>
            -9.1622966527938843e-01 -6.7934811115264893e-02</leafValues></_>
        <_>
          <internalNodes>
            0 -1 11 -2.7525244513526559e-04</internalNodes>
          <leafValues>
            -9.7567486763000488e-01 1.7593106627464294e-01</leafValues></_></weakClassifiers></_>
    <!-- stage 4 -->
    <_>
      <maxWeakCount>3</maxWeakCount>
      <stageThreshold>-1.8395749330520630e+00</stageThreshold>
      <weakClassifiers>
        <_>
          <internalNodes>
            0 -1 7 1.0132034122943878e-01</internalNodes>
          <leafValues>
            -9.6267187595367432e-01 5.0000000000000000e-01</leafValues></_>
        <_>
          <internalNodes>
            0 -1 11 7.9535719123668969e-05</internalNodes>
          <leafValues>
            -1.4873822033405304e-01 -9.8361748456954956e-01</leafValues></_>
        <_>
          <internalNodes>
            0 -1 12 1.1623924225568771e-01</internalNodes>
          <leafValues>
            -9.7775340080261230e-01 1.0671444237232208e-01</leafValues></_></weakClassifiers></_>
    <!-- stage 5 -->
    <_>
      <maxWeakCount>3</maxWeakCount>
      <stageThreshold>-1.6273641586303711e+00</stageThreshold>
      <weakClassifiers>
        <_>
          <internalNodes>
            0 -1 2 2.9326337575912476e-01</internalNodes>
          <leafValues>
            -9.6270853281021118e-01 1.</leafValues></_>
        <_>
          <internalNodes>
            0 -1 14 -1.2407852336764336e-03</internalNodes>
          <leafValues>
            2.8472951054573059e-01 -8.9166545867919922e-01</leafValues></_>
        <_>
          <internalNodes>
            0 -1 10 6.0050930187571794e-05</internalNodes>
          <leafValues>
            2.2700983285903931e-01 -1.</leafValues></_></weakClassifiers></_></stages>
  <features>
    <_>
      <rects>
        <_>
          0 1 24 18 -1.</_>
        <_>
          8 1 8 18 3.</_></rects>
      <tilted>0</tilted></_>
    <_>
      <rects>
        <_>
          0 14 12 7 -1.</_>
        <_>
          6 14 6 7 2.</_></rects>
      <tilted>0</tilted></_>
    <_>
      <rects>
        <_>
          1 0 10 19 -1.</_>
        <_>
          6 0 5 19 2.</_></rects>
      <tilted>0</tilted></_>
    <_>
      <rects>
        <_>
          2 0 18 24 -1.</_>
        <_>
          2 8 18 8 3.</_></rects>
      <tilted>0</tilted></_>
    <_>
      <rects>
        <_>
          2 3 4 15 -1.</_>
        <_>
          4 3 2 15 2.</_></rects>
      <tilted>0</tilted></_>
    <_>
      <rects>
        <_>
          2 13 12 8 -1.</_>
        <_>
          2 17 12 4 2.</_></rects>
      <tilted>0</tilted></_>
    <_>
      <rects>
        <_>
          3 0 9 6 -1.</_>
        <_>
          3 3 9 3 2.</_></rects>
      <tilted>0</tilted></_>
    <_>
      <rects>
        <_>
          3 17 18 3 -1.</_>
        <_>
          12 17 9 3 2.</_></rects>
      <tilted>0</tilted></_>
    <_>
      <rects>
        <_>
          8 19 10 4 -1.</_>
        <_>
          8 21 10 2 2.</_></rects>
      <tilted>0</tilted></_>
    <_>
      <rects>
        <_>
          9 0 5 6 -1.</_>
        <_>
          9 3 5 3 2.</_></rects>
      <tilted>0</tilted></_>
    <_>
      <rects>
        <_>
          11 13 2 4 -1.</_>
        <_>
          11 15 2 2 2.</_></rects>
      <tilted>0</tilted></_>
    <_>
      <rects>
        <_>
          11 13 3 4 -1.</_>
        <_>
          11 15 3 2 2.</_></rects>
      <tilted>0</tilted></_>
    <_>
      <rects>
        <_>
          12 0 6 21 -1.</_>
        <_>
          12 7 6 7 3.</_></rects>
      <tilted>0</tilted></_>
    <_>
      <rects>
        <_>
          17 9 6 5 -1.</_>
        <_>
          20 9 3 5 2.</_></rects>
      <tilted>0</tilted></_>
    <_>
      <rects>
        <_>
          20 15 3 1 -1.</_>
        <_>
          21 15 1 1 3.</_></rects>
      <tilted>0</tilted></_></features></cascade>
</opencv_storage>
