<?xml version="1.0"?>
<opencv_storage>
<cascade>
  <stageType>BOOST</stageType>
  <featureType>HAAR</featureType>
  <height>24</height>
  <width>24</width>
  <stageParams>
    <boostType>GAB</boostType>
    <minHitRate>9.9500000476837158e-01</minHitRate>
    <maxFalseAlarm>5.0000000000000000e-01</maxFalseAlarm>
    <weightTrimRate>9.4999998807907104e-01</weightTrimRate>
    <maxDepth>1</maxDepth>
    <maxWeakCount>100</maxWeakCount></stageParams>
  <featureParams>
    <maxCatCount>0</maxCatCount>
    <featSize>1</featSize>
    <mode>BASIC</mode></featureParams>
  <stageNum>12</stageNum>
  <stages>
    <!-- stage 0 -->
    <_>
      <maxWeakCount>2</maxWeakCount>
      <stageThreshold>-2.5370770692825317e-01</stageThreshold>
      <weakClassifiers>
        <_>
          <internalNodes>
            0 -1 20 -9.8883092403411865e-02</internalNodes>
          <leafValues>
            7.8151261806488037e-01 -9.6809571981430054e-01</leafValues></_>
        <_>
          <internalNodes>
            0 -1 16 5.7507288455963135e-01</internalNodes>
          <leafValues>
            -9.7673684358596802e-01 7.1438801288604736e-01</leafValues></_></weakClassifiers></_>
    <!-- stage 1 -->
    <_>
      <maxWeakCount>3</maxWeakCount>
      <stageThreshold>-1.8521727323532104e+00</stageThreshold>
      <weakClassifiers>
        <_>
          <internalNodes>
            0 -1 7 6.9577902555465698e-02</internalNodes>
          <leafValues>
            -9.6541202068328857e-01 5.1079136133193970e-01</leafValues></_>
        <_>
          <internalNodes>
            0 -1 2 1.1730945110321045e-01</internalNodes>
          <leafValues>
            -9.7889000177383423e-01 2.2344601154327393e-01</leafValues></_>
        <_>
          <internalNodes>
            0 -1 14 -6.1186664970591664e-04</internalNodes>
          <leafValues>
            -9.5787328481674194e-01 9.2129282653331757e-02</leafValues></_></weakClassifiers></_>
    <!-- stage 2 -->
    <_>
      <maxWeakCount>3</maxWeakCount>
      <stageThreshold>-1.7213181257247925e+00</stageThreshold>
      <weakClassifiers>
        <_>
          <internalNodes>
            0 -1 4 8.7100654840469360e-02</internalNodes>
          <leafValues>
            -9.5625001192092896e-01 2.4691358208656311e-01</leafValues></_>
        <_>
          <internalNodes>
            0 -1 5 7.2065874934196472e-02</internalNodes>
          <leafValues>
            -9.6878474950790405e-01 7.3526449501514435e-02</leafValues></_>
        <_>
          <internalNodes>
            0 -1 17 -3.0546110868453979e-01</internalNodes>
          <leafValues>
            4.3567812442779541e-01 -8.3859449625015259e-01</leafValues></_></weakClassifiers></_>
    <!-- stage 3 -->
    <_>
      <maxWeakCount>3</maxWeakCount>
      <stageThreshold>-1.3204379081726074e+00</stageThreshold>
      <weakClassifiers>
        <_>
          <internalNodes>
            0 -1 11 7.2749182581901550e-02</internalNodes>
          <leafValues>
            -9.0663897991180420e-01 -2.5316456332802773e-02</leafValues></_>
        <_>
          <internalNodes>
            0 -1 23 -4.7349307686090469e-02</internalNodes>
          <leafValues>
            4.1521564126014709e-01 -7.5226098299026489e-01</leafValues></_>
        <_>
          <internalNodes>
            0 -1 9 -3.6804165574721992e-04</internalNodes>
          <leafValues>
            -1. 3.3846208453178406e-01</leafValues></_></weakClassifiers></_>
    <!-- stage 4 -->
    <_>
      <maxWeakCount>2</maxWeakCount>
      <stageThreshold>-1.0071176290512085e+00</stageThreshold>
      <weakClassifiers>
        <_>
          <internalNodes>
            0 -1 9 6.9530899054370821e-05</internalNodes>
          <leafValues>
            -1.7808219790458679e-01 -9.9518072605133057e-01</leafValues></_>
        <_>
          <internalNodes>
            0 -1 8 -1.5059018135070801e-01</internalNodes>
          <leafValues>
            3.5070145130157471e-01 -8.2903540134429932e-01</leafValues></_></weakClassifiers></_>
    <!-- stage 5 -->
    <_>
      <maxWeakCount>4</maxWeakCount>
      <stageThreshold>-1.4735214710235596e+00</stageThreshold>
      <weakClassifiers>
        <_>
          <internalNodes>
            0 -1 24 -3.4317266196012497e-02</internalNodes>
          <leafValues>
            -1.8279570341110229e-01 -9.0170937776565552e-01</leafValues></_>
        <_>
          <internalNodes>
            0 -1 15 1.3084980845451355e-01</internalNodes>
          <leafValues>
            -9.6062737703323364e-01 1.3656023144721985e-01</leafValues></_>
        <_>
          <internalNodes>
            0 -1 31 -1.6961561050266027e-03</internalNodes>
          <leafValues>
            -9.5406180620193481e-01 2.7252444624900818e-01</leafValues></_>
        <_>
          <internalNodes>
            0 -1 12 5.1586702466011047e-04</internalNodes>
          <leafValues>
            2.4568952620029449e-01 -9.7268015146255493e-01</leafValues></_></weakClassifiers></_>
    <!-- stage 6 -->
    <_>
      <maxWeakCount>2</maxWeakCount>
      <stageThreshold>-1.1831979751586914e+00</stageThreshold>
      <weakClassifiers>
        <_>
          <internalNodes>
            0 -1 24 -3.4238532185554504e-02</internalNodes>
          <leafValues>
            -2.0000000298023224e-01 -9.0128755569458008e-01</leafValues></_>
        <_>
          <internalNodes>
            0 -1 12 -2.2060217452235520e-04</internalNodes>
          <leafValues>
            -9.8319792747497559e-01 1.0561105608940125e-01</leafValues></_></weakClassifiers></_>
    <!-- stage 7 -->
    <_>
      <maxWeakCount>2</maxWeakCount>
      <stageThreshold>-8.0448418855667114e-01</stageThreshold>
      <weakClassifiers>
        <_>
          <internalNodes>
            0 -1 19 4.2771939188241959e-02</internalNodes>
          <leafValues>
            -8.4082394838333130e-01 3.7037035822868347e-01</leafValues></_>
        <_>
          <internalNodes>
            0 -1 28 -4.1325745405629277e-04</internalNodes>
          <leafValues>
            -1. 3.6339756101369858e-02</leafValues></_></weakClassifiers></_>
    <!-- stage 8 -->
    <_>
      <maxWeakCount>3</maxWeakCount>
      <stageThreshold>-1.7572007179260254e+00</stageThreshold>
      <weakClassifiers>
        <_>
          <internalNodes>
            0 -1 27 6.9825421087443829e-04</internalNodes>
          <leafValues>
            -1.8115942180156708e-01 -9.7872340679168701e-01</leafValues></_>
        <_>
          <internalNodes>
            0 -1 22 -6.0731366276741028e-02</internalNodes>
          <leafValues>
            1.9293521344661713e-01 -8.9255297183990479e-01</leafValues></_>
        <_>
          <internalNodes>
            0 -1 26 1.7217242566403002e-04</internalNodes>
          <leafValues>
            1.9607223570346832e-01 -9.7141253948211670e-01</leafValues></_></weakClassifiers></_>
    <!-- stage 9 -->
    <_>
      <maxWeakCount>3</maxWeakCount>
      <stageThreshold>-1.5498459339141846e+00</stageThreshold>
      <weakClassifiers>
        <_>
          <internalNodes>
            0 -1 6 -5.0724972039461136e-02</internalNodes>
          <leafValues>
            -1.2345679104328156e-01 -8.9375001192092896e-01</leafValues></_>
        <_>
          <internalNodes>
            0 -1 29 6.7641603527590632e-04</internalNodes>
          <leafValues>
            1.1559251695871353e-01 -9.3860787153244019e-01</leafValues></_>
        <_>
          <internalNodes>
            0 -1 1 -1.5353343915194273e-03</internalNodes>
          <leafValues>
            -1. 2.8251188993453979e-01</leafValues></_></weakClassifiers></_>
    <!-- stage 10 -->
    <_>
      <maxWeakCount>4</maxWeakCount>
      <stageThreshold>-1.1100555658340454e+00</stageThreshold>
      <weakClassifiers>
        <_>
          <internalNodes>
            0 -1 13 2.4063056334853172e-03</internalNodes>
          <leafValues>
            -8.3793741464614868e-01 8.8888889551162720e-01</leafValues></_>
        <_>
          <internalNodes>
            0 -1 0 8.1177451647818089e-04</internalNodes>
          <leafValues>
            1.9987782835960388e-01 -9.8483240604400635e-01</leafValues></_>
        <_>
          <internalNodes>
            0 -1 30 7.8732287511229515e-04</internalNodes>
          <leafValues>
            4.3370312452316284e-01 -9.2957359552383423e-01</leafValues></_>
        <_>
          <internalNodes>
            0 -1 3 -4.5161291956901550e-02</internalNodes>
          <leafValues>
            4.5757755637168884e-01 -6.7736738920211792e-01</leafValues></_></weakClassifiers></_>
    <!-- stage 11 -->
    <_>
      <maxWeakCount>4</maxWeakCount>
      <stageThreshold>-1.8432223796844482e+00</stageThreshold>
      <weakClassifiers>
        <_>
          <internalNodes>
            0 -1 10 1.2352813780307770e-01</internalNodes>
          <leafValues>
            -8.7265914678573608e-01 1.</leafValues></_>
        <_>
          <internalNodes>
            0 -1 21 4.4711440801620483e-02</internalNodes>
          <leafValues>
            -7.8638941049575806e-01 7.3495787382125854e-01</leafValues></_>
        <_>
          <internalNodes>
            0 -1 25 -6.5960269421339035e-04</internalNodes>
          <leafValues>
            -7.1672356128692627e-01 7.0550578832626343e-01</leafValues></_>
        <_>
          <internalNodes>
            0 -1 18 4.5838259393349290e-04</internalNodes>
          <leafValues>
            5.3254979848861694e-01 -9.8924714326858521e-01</leafValues></_></weakClassifiers></_></stages>
  <features>
    <_>
      <rects>
        <_>
          0 2 1 20 -1.</_>
        <_>
          0 12 1 10 2.</_></rects>
      <tilted>0</tilted></_>
    <_>
      <rects>
        <_>
          0 2 1 22 -1.</_>
        <_>
          0 13 1 11 2.</_></rects>
      <tilted>0</tilted></_>
    <_>
      <rects>
        <_>
          0 5 12 12 -1.</_>
        <_>
          6 5 6 12 2.</_></rects>
      <tilted>0</tilted></_>
    <_>
      <rects>
        <_>
          0 6 6 18 -1.</_>
        <_>
          0 15 6 9 2.</_></rects>
      <tilted>0</tilted></_>
    <_>
      <rects>
        <_>
          0 7 8 10 -1.</_>
        <_>
          4 7 4 10 2.</_></rects>
      <tilted>0</tilted></_>
    <_>
      <rects>
        <_>
          0 7 10 8 -1.</_>
        <_>
          5 7 5 8 2.</_></rects>
      <tilted>0</tilted></_>
    <_>
      <rects>
        <_>
          0 8 6 16 -1.</_>
        <_>
          0 8 3 8 2.</_>
        <_>
          3 16 3 8 2.</_></rects>
      <tilted>0</tilted></_>
    <_>
      <rects>
        <_>
          0 8 8 8 -1.</_>
        <_>
          4 8 4 8 2.</_></rects>
      <tilted>0</tilted></_>
    <_>
      <rects>
        <_>
          0 14 17 10 -1.</_>
        <_>
          0 19 17 5 2.</_></rects>
      <tilted>0</tilted></_>
    <_>
      <rects>
        <_>
          0 15 1 8 -1.</_>
        <_>
          0 19 1 4 2.</_></rects>
      <tilted>0</tilted></_>
    <_>
      <rects>
        <_>
          1 5 12 13 -1.</_>
        <_>
          5 5 4 13 3.</_></rects>
      <tilted>0</tilted></_>
    <_>
      <rects>
        <_>
          1 6 6 11 -1.</_>
        <_>
          4 6 3 11 2.</_></rects>
      <tilted>0</tilted></_>
    <_>
      <rects>
        <_>
          1 23 20 1 -1.</_>
        <_>
          11 23 10 1 2.</_></rects>
      <tilted>0</tilted></_>
    <_>
      <rects>
        <_>
          3 15 2 1 -1.</_>
        <_>
          4 15 1 1 2.</_></rects>
      <tilted>0</tilted></_>
    <_>
      <rects>
        <_>
          3 22 18 2 -1.</_>
        <_>
          3 23 18 1 2.</_></rects>
      <tilted>0</tilted></_>
    <_>
      <rects>
        <_>
          4 0 14 10 -1.</_>
        <_>
          4 5 14 5 2.</_></rects>
      <tilted>0</tilted></_>
    <_>
      <rects>
        <_>
          4 0 15 24 -1.</_>
        <_>
          4 8 15 8 3.</_></rects>
      <tilted>0</tilted></_>
    <_>
      <rects>
        <_>
          4 10 16 14 -1.</_>
        <_>
          4 17 16 7 2.</_></rects>
      <tilted>0</tilted></_>
    <_>
      <rects>
        <_>
          9 10 3 3 -1.</_>
        <_>
          9 11 3 1 3.</_></rects>
      <tilted>0</tilted></_>
    <_>
      <rects>
        <_>
          11 13 5 9 -1.</_>
        <_>
          11 16 5 3 3.</_></rects>
      <tilted>0</tilted></_>
    <_>
      <rects>
        <_>
          14 6 10 10 -1.</_>
        <_>
          19 6 5 10 2.</_></rects>
      <tilted>0</tilted></_>
    <_>
      <rects>
        <_>
          14 10 10 12 -1.</_>
        <_>
          14 14 10 4 3.</_></rects>
      <tilted>0</tilted></_>
    <_>
      <rects>
        <_>
          14 11 10 7 -1.</_>
        <_>
          19 11 5 7 2.</_></rects>
      <tilted>0</tilted></_>
    <_>
      <rects>
        <_>
          16 0 8 12 -1.</_>
        <_>
          16 0 4 6 2.</_>
        <_>
          20 6 4 6 2.</_></rects>
      <tilted>0</tilted></_>
    <_>
      <rects>
        <_>
          18 2 6 12 -1.</_>
        <_>
          18 2 3 6 2.</_>
        <_>
          21 8 3 6 2.</_></rects>
      <tilted>0</tilted></_>
    <_>
      <rects>
        <_>
          21 14 2 9 -1.</_>
        <_>
          21 17 2 3 3.</_></rects>
      <tilted>0</tilted></_>
    <_>
      <rects>
        <_>
          23 0 1 6 -1.</_>
        <_>
          23 3 1 3 2.</_></rects>
      <tilted>0</tilted></_>
    <_>
      <rects>
        <_>
          23 0 1 12 -1.</_>
        <_>
          23 6 1 6 2.</_></rects>
      <tilted>0</tilted></_>
    <_>
      <rects>
        <_>
          23 0 1 21 -1.</_>
        <_>
          23 7 1 7 3.</_></rects>
      <tilted>0</tilted></_>
    <_>
      <rects>
        <_>
          23 1 1 10 -1.</_>
        <_>
          23 6 1 5 2.</_></rects>
      <tilted>0</tilted></_>
    <_>
      <rects>
        <_>
          23 3 1 10 -1.</_>
        <_>
          23 8 1 5 2.</_></rects>
      <tilted>0</tilted></_>
    <_>
      <rects>
        <_>
          23 10 1 14 -1.</_>
        <_>
          23 17 1 7 2.</_></rects>
      <tilted>0</tilted></_></features></cascade>
</opencv_storage>
