<?xml version="1.0"?>
<opencv_storage>
<cascade>
  <stageType>BOOST</stageType>
  <featureType>HAAR</featureType>
  <height>24</height>
  <width>24</width>
  <stageParams>
    <boostType>GAB</boostType>
    <minHitRate>9.9500000476837158e-01</minHitRate>
    <maxFalseAlarm>5.0000000000000000e-01</maxFalseAlarm>
    <weightTrimRate>9.4999998807907104e-01</weightTrimRate>
    <maxDepth>1</maxDepth>
    <maxWeakCount>100</maxWeakCount></stageParams>
  <featureParams>
    <maxCatCount>0</maxCatCount>
    <featSize>1</featSize>
    <mode>BASIC</mode></featureParams>
  <stageNum>11</stageNum>
  <stages>
    <!-- stage 0 -->
    <_>
      <maxWeakCount>2</maxWeakCount>
      <stageThreshold>-2.6258954405784607e-01</stageThreshold>
      <weakClassifiers>
        <_>
          <internalNodes>
            0 -1 18 6.3176459074020386e-01</internalNodes>
          <leafValues>
            -9.9200797080993652e-01 9.3258428573608398e-01</leafValues></_>
        <_>
          <internalNodes>
            0 -1 7 1.7221415042877197e-01</internalNodes>
          <leafValues>
            -9.8943912982940674e-01 7.2941845655441284e-01</leafValues></_></weakClassifiers></_>
    <!-- stage 1 -->
    <_>
      <maxWeakCount>2</maxWeakCount>
      <stageThreshold>-9.4607216119766235e-01</stageThreshold>
      <weakClassifiers>
        <_>
          <internalNodes>
            0 -1 17 6.8121010065078735e-01</internalNodes>
          <leafValues>
            -9.5228630304336548e-01 5.7142859697341919e-01</leafValues></_>
        <_>
          <internalNodes>
            0 -1 15 5.4204165935516357e-01</internalNodes>
          <leafValues>
            -1. 6.2141469679772854e-03</leafValues></_></weakClassifiers></_>
    <!-- stage 2 -->
    <_>
      <maxWeakCount>3</maxWeakCount>
      <stageThreshold>-1.4840562343597412e+00</stageThreshold>
      <weakClassifiers>
        <_>
          <internalNodes>
            0 -1 12 8.8133543729782104e-02</internalNodes>
          <leafValues>
            -9.3458873033523560e-01 4.0740740299224854e-01</leafValues></_>
        <_>
          <internalNodes>
            0 -1 26 -6.4473502337932587e-02</internalNodes>
          <leafValues>
            6.0732072591781616e-01 -9.1384059190750122e-01</leafValues></_>
        <_>
          <internalNodes>
            0 -1 8 -1.9594240002334118e-03</internalNodes>
          <leafValues>
            -1. 3.6437305808067322e-01</leafValues></_></weakClassifiers></_>
    <!-- stage 3 -->
    <_>
      <maxWeakCount>4</maxWeakCount>
      <stageThreshold>-1.5723685026168823e+00</stageThreshold>
      <weakClassifiers>
        <_>
          <internalNodes>
            0 -1 15 7.4610477685928345e-01</internalNodes>
          <leafValues>
            -9.2487311363220215e-01 9.5238098874688148e-03</leafValues></_>
        <_>
          <internalNodes>
            0 -1 29 9.9157937802374363e-04</internalNodes>
          <leafValues>
            5.0320390611886978e-02 -9.3935567140579224e-01</leafValues></_>
        <_>
          <internalNodes>
            0 -1 0 2.1744947880506516e-03</internalNodes>
          <leafValues>
            2.5808399915695190e-01 -9.7037512063980103e-01</leafValues></_>
        <_>
          <internalNodes>
            0 -1 11 -4.2432965710759163e-04</internalNodes>
          <leafValues>
            -9.8636496067047119e-01 2.7255934476852417e-01</leafValues></_></weakClassifiers></_>
    <!-- stage 4 -->
    <_>
      <maxWeakCount>4</maxWeakCount>
      <stageThreshold>-1.4631593227386475e+00</stageThreshold>
      <weakClassifiers>
        <_>
          <internalNodes>
            0 -1 15 7.4600392580032349e-01</internalNodes>
          <leafValues>
            -9.2275571823120117e-01 -1.9696970283985138e-01</leafValues></_>
        <_>
          <internalNodes>
            0 -1 11 4.1283178143203259e-04</internalNodes>
          <leafValues>
            7.0193827152252197e-02 -9.8314911127090454e-01</leafValues></_>
        <_>
          <internalNodes>
            0 -1 3 3.2289540767669678e-01</internalNodes>
          <leafValues>
            -8.4158951044082642e-01 3.4194535017013550e-01</leafValues></_>
        <_>
          <internalNodes>
            0 -1 31 -7.9171539982780814e-04</internalNodes>
          <leafValues>
            -9.8257291316986084e-01 2.3099207878112793e-01</leafValues></_></weakClassifiers></_>
    <!-- stage 5 -->
    <_>
      <maxWeakCount>4</maxWeakCount>
      <stageThreshold>-1.3444174528121948e+00</stageThreshold>
      <weakClassifiers>
        <_>
          <internalNodes>
            0 -1 22 1.8547968938946724e-02</internalNodes>
          <leafValues>
            -8.8167941570281982e-01 3.3333334326744080e-01</leafValues></_>
        <_>
          <internalNodes>
            0 -1 5 8.3823479712009430e-02</internalNodes>
          <leafValues>
            -8.2389122247695923e-01 2.3841890692710876e-01</leafValues></_>
        <_>
          <internalNodes>
            0 -1 13 4.0080276085063815e-04</internalNodes>
          <leafValues>
            2.2616741061210632e-01 -9.7373622655868530e-01</leafValues></_>
        <_>
          <internalNodes>
            0 -1 4 -2.3705726198386401e-04</internalNodes>
          <leafValues>
            -9.2355298995971680e-01 2.7257934212684631e-01</leafValues></_></weakClassifiers></_>
    <!-- stage 6 -->
    <_>
      <maxWeakCount>3</maxWeakCount>
      <stageThreshold>-1.5640484094619751e+00</stageThreshold>
      <weakClassifiers>
        <_>
          <internalNodes>
            0 -1 23 -1.4448171854019165e-01</internalNodes>
          <leafValues>
            2.3404255509376526e-01 -8.8302969932556152e-01</leafValues></_>
        <_>
          <internalNodes>
            0 -1 6 7.1492359042167664e-02</internalNodes>
          <leafValues>
            -8.5953801870346069e-01 5.7324983179569244e-02</leafValues></_>
        <_>
          <internalNodes>
            0 -1 1 2.1123718470335007e-03</internalNodes>
          <leafValues>
            1.7851932346820831e-01 -1.</leafValues></_></weakClassifiers></_>
    <!-- stage 7 -->
    <_>
      <maxWeakCount>4</maxWeakCount>
      <stageThreshold>-1.4797354936599731e+00</stageThreshold>
      <weakClassifiers>
        <_>
          <internalNodes>
            0 -1 24 -1.2379065155982971e-01</internalNodes>
          <leafValues>
            3.4615385532379150e-01 -8.9402699470520020e-01</leafValues></_>
        <_>
          <internalNodes>
            0 -1 28 9.9685136228799820e-04</internalNodes>
          <leafValues>
            -1.3829026371240616e-02 -9.4228649139404297e-01</leafValues></_>
        <_>
          <internalNodes>
            0 -1 2 -2.1725231781601906e-03</internalNodes>
          <leafValues>
            -9.9059218168258667e-01 2.3622715473175049e-01</leafValues></_>
        <_>
          <internalNodes>
            0 -1 10 -1.1147087207064033e-05</internalNodes>
          <leafValues>
            3.6584693193435669e-01 -8.0810666084289551e-01</leafValues></_></weakClassifiers></_>
    <!-- stage 8 -->
    <_>
      <maxWeakCount>3</maxWeakCount>
      <stageThreshold>-1.4120177030563354e+00</stageThreshold>
      <weakClassifiers>
        <_>
          <internalNodes>
            0 -1 20 5.4689534008502960e-02</internalNodes>
          <leafValues>
            -8.9035916328430176e-01 1.</leafValues></_>
        <_>
          <internalNodes>
            0 -1 19 -3.4396824240684509e-01</internalNodes>
          <leafValues>
            4.2731633782386780e-01 -8.0914360284805298e-01</leafValues></_>
        <_>
          <internalNodes>
            0 -1 30 -2.0051854662597179e-03</internalNodes>
          <leafValues>
            -9.4897478818893433e-01 4.4759157299995422e-01</leafValues></_></weakClassifiers></_>
    <!-- stage 9 -->
    <_>
      <maxWeakCount>3</maxWeakCount>
      <stageThreshold>-1.2500250339508057e+00</stageThreshold>
      <weakClassifiers>
        <_>
          <internalNodes>
            0 -1 21 -4.0864758193492889e-02</internalNodes>
          <leafValues>
            1. -9.0657770633697510e-01</leafValues></_>
        <_>
          <internalNodes>
            0 -1 9 -1.6524067148566246e-02</internalNodes>
          <leafValues>
            1. -7.6234018802642822e-01</leafValues></_>
        <_>
          <internalNodes>
            0 -1 27 -7.9129989899229258e-05</internalNodes>
          <leafValues>
            -9.8472541570663452e-01 4.1889280080795288e-01</leafValues></_></weakClassifiers></_>
    <!-- stage 10 -->
    <_>
      <maxWeakCount>3</maxWeakCount>
      <stageThreshold>-8.6996489763259888e-01</stageThreshold>
      <weakClassifiers>
        <_>
          <internalNodes>
            0 -1 14 2.6909267762675881e-04</internalNodes>
          <leafValues>
            -9.6270853281021118e-01 1.</leafValues></_>
        <_>
          <internalNodes>
            0 -1 25 -1.1228241419303231e-05</internalNodes>
          <leafValues>
            1. -9.0725636482238770e-01</leafValues></_>
        <_>
          <internalNodes>
            0 -1 16 7.4178713839501143e-04</internalNodes>
          <leafValues>
            1. -8.3534640073776245e-01</leafValues></_></weakClassifiers></_></stages>
  <features>
    <_>
      <rects>
        <_>
          0 0 1 16 -1.</_>
        <_>
          0 8 1 8 2.</_></rects>
      <tilted>0</tilted></_>
    <_>
      <rects>
        <_>
          0 0 1 20 -1.</_>
        <_>
          0 10 1 10 2.</_></rects>
      <tilted>0</tilted></_>
    <_>
      <rects>
        <_>
          0 0 1 24 -1.</_>
        <_>
          0 12 1 12 2.</_></rects>
      <tilted>0</tilted></_>
    <_>
      <rects>
        <_>
          0 0 24 18 -1.</_>
        <_>
          8 0 8 18 3.</_></rects>
      <tilted>0</tilted></_>
    <_>
      <rects>
        <_>
          0 1 21 1 -1.</_>
        <_>
          7 1 7 1 3.</_></rects>
      <tilted>0</tilted></_>
    <_>
      <rects>
        <_>
          0 5 8 11 -1.</_>
        <_>
          4 5 4 11 2.</_></rects>
      <tilted>0</tilted></_>
    <_>
      <rects>
        <_>
          0 8 8 13 -1.</_>
        <_>
          4 8 4 13 2.</_></rects>
      <tilted>0</tilted></_>
    <_>
      <rects>
        <_>
          0 8 24 6 -1.</_>
        <_>
          8 8 8 6 3.</_></rects>
      <tilted>0</tilted></_>
    <_>
      <rects>
        <_>
          0 12 1 12 -1.</_>
        <_>
          0 18 1 6 2.</_></rects>
      <tilted>0</tilted></_>
    <_>
      <rects>
        <_>
          0 16 21 4 -1.</_>
        <_>
          7 16 7 4 3.</_></rects>
      <tilted>0</tilted></_>
    <_>
      <rects>
        <_>
          0 19 24 2 -1.</_>
        <_>
          0 20 24 1 2.</_></rects>
      <tilted>0</tilted></_>
    <_>
      <rects>
        <_>
          0 22 21 1 -1.</_>
        <_>
          7 22 7 1 3.</_></rects>
      <tilted>0</tilted></_>
    <_>
      <rects>
        <_>
          1 8 8 9 -1.</_>
        <_>
          5 8 4 9 2.</_></rects>
      <tilted>0</tilted></_>
    <_>
      <rects>
        <_>
          1 22 18 1 -1.</_>
        <_>
          7 22 6 1 3.</_></rects>
      <tilted>0</tilted></_>
    <_>
      <rects>
        <_>
          2 15 4 4 -1.</_>
        <_>
          4 15 2 4 2.</_></rects>
      <tilted>0</tilted></_>
    <_>
      <rects>
        <_>
          5 0 13 24 -1.</_>
        <_>
          5 8 13 8 3.</_></rects>
      <tilted>0</tilted></_>
    <_>
      <rects>
        <_>
          5 15 4 1 -1.</_>
        <_>
          7 15 2 1 2.</_></rects>
      <tilted>0</tilted></_>
    <_>
      <rects>
        <_>
          6 0 12 24 -1.</_>
        <_>
          6 8 12 8 3.</_></rects>
      <tilted>0</tilted></_>
    <_>
      <rects>
        <_>
          6 0 13 24 -1.</_>
        <_>
          6 8 13 8 3.</_></rects>
      <tilted>0</tilted></_>
    <_>
      <rects>
        <_>
          6 8 11 16 -1.</_>
        <_>
          6 16 11 8 2.</_></rects>
      <tilted>0</tilted></_>
    <_>
      <rects>
        <_>
          6 10 6 12 -1.</_>
        <_>
          6 14 6 4 3.</_></rects>
      <tilted>0</tilted></_>
    <_>
      <rects>
        <_>
          8 15 16 2 -1.</_>
        <_>
          16 15 8 2 2.</_></rects>
      <tilted>0</tilted></_>
    <_>
      <rects>
        <_>
          8 16 12 2 -1.</_>
        <_>
          14 16 6 2 2.</_></rects>
      <tilted>0</tilted></_>
    <_>
      <rects>
        <_>
          15 6 8 13 -1.</_>
        <_>
          19 6 4 13 2.</_></rects>
      <tilted>0</tilted></_>
    <_>
      <rects>
        <_>
          15 8 8 11 -1.</_>
        <_>
          19 8 4 11 2.</_></rects>
      <tilted>0</tilted></_>
    <_>
      <rects>
        <_>
          16 7 6 2 -1.</_>
        <_>
          16 7 3 1 2.</_>
        <_>
          19 8 3 1 2.</_></rects>
      <tilted>0</tilted></_>
    <_>
      <rects>
        <_>
          16 9 8 7 -1.</_>
        <_>
          20 9 4 7 2.</_></rects>
      <tilted>0</tilted></_>
    <_>
      <rects>
        <_>
          18 0 6 1 -1.</_>
        <_>
          21 0 3 1 2.</_></rects>
      <tilted>0</tilted></_>
    <_>
      <rects>
        <_>
          23 0 1 14 -1.</_>
        <_>
          23 7 1 7 2.</_></rects>
      <tilted>0</tilted></_>
    <_>
      <rects>
        <_>
          23 0 1 16 -1.</_>
        <_>
          23 8 1 8 2.</_></rects>
      <tilted>0</tilted></_>
    <_>
      <rects>
        <_>
          23 9 1 15 -1.</_>
        <_>
          23 14 1 5 3.</_></rects>
      <tilted>0</tilted></_>
    <_>
      <rects>
        <_>
          23 16 1 8 -1.</_>
        <_>
          23 20 1 4 2.</_></rects>
      <tilted>0</tilted></_></features></cascade>
</opencv_storage>
